digraph Tree {
node [shape=box] ;
0 [label="TP_ST_CONCLUSAO <= 2.5\nentropy = 1.0\nsamples = 16725\nvalue = [8422, 8303]\nclass = 0"] ;
1 [label="entropy = 0.0\nsamples = 7608\nvalue = [7608, 0]\nclass = 0"] ;
0 -> 1 [labeldistance=2.5, labelangle=45, headlabel="True"] ;
2 [label="NU_IDADE <= 17.994\nentropy = 0.434\nsamples = 9117\nvalue = [814, 8303]\nclass = 1"] ;
0 -> 2 [labeldistance=2.5, labelangle=-45, headlabel="False"] ;
3 [label="TP_ST_CONCLUSAO <= 3.5\nentropy = 0.023\nsamples = 8221\nvalue = [18, 8203]\nclass = 1"] ;
2 -> 3 ;
4 [label="entropy = 0.0\nsamples = 8203\nvalue = [0, 8203]\nclass = 1"] ;
3 -> 4 ;
5 [label="entropy = 0.0\nsamples = 18\nvalue = [18, 0]\nclass = 0"] ;
3 -> 5 ;
6 [label="NU_IDADE <= 18.5\nentropy = 0.505\nsamples = 896\nvalue = [796, 100]\nclass = 0"] ;
2 -> 6 ;
7 [label="NU_NOTA_CN <= 182.0\nentropy = 0.955\nsamples = 266\nvalue = [166, 100]\nclass = 0"] ;
6 -> 7 ;
8 [label="TP_ST_CONCLUSAO <= 3.5\nentropy = 0.924\nsamples = 115\nvalue = [39, 76]\nclass = 1"] ;
7 -> 8 ;
9 [label="NU_NOTA_LC <= 495.1\nentropy = 0.906\nsamples = 112\nvalue = [36, 76]\nclass = 1"] ;
8 -> 9 ;
10 [label="NU_NOTA_LC <= 227.1\nentropy = 0.899\nsamples = 111\nvalue = [35, 76]\nclass = 1"] ;
9 -> 10 ;
11 [label="entropy = 0.902\nsamples = 110\nvalue = [35, 75]\nclass = 1"] ;
10 -> 11 ;
12 [label="entropy = 0.0\nsamples = 1\nvalue = [0, 1]\nclass = 1"] ;
10 -> 12 ;
13 [label="entropy = 0.0\nsamples = 1\nvalue = [1, 0]\nclass = 0"] ;
9 -> 13 ;
14 [label="entropy = 0.0\nsamples = 3\nvalue = [3, 0]\nclass = 0"] ;
8 -> 14 ;
15 [label="NU_NOTA_COMP1 <= 130.0\nentropy = 0.632\nsamples = 151\nvalue = [127, 24]\nclass = 0"] ;
7 -> 15 ;
16 [label="NU_NOTA_LC <= 530.0\nentropy = 0.69\nsamples = 130\nvalue = [106, 24]\nclass = 0"] ;
15 -> 16 ;
17 [label="NU_NOTA_LC <= 498.9\nentropy = 0.573\nsamples = 103\nvalue = [89, 14]\nclass = 0"] ;
16 -> 17 ;
18 [label="NU_NOTA_CN <= 421.35\nentropy = 0.628\nsamples = 89\nvalue = [75, 14]\nclass = 0"] ;
17 -> 18 ;
19 [label="NU_NOTA_CN <= 415.4\nentropy = 0.792\nsamples = 42\nvalue = [32, 10]\nclass = 0"] ;
18 -> 19 ;
20 [label="NU_NOTA_LC <= 181.5\nentropy = 0.629\nsamples = 38\nvalue = [32, 6]\nclass = 0"] ;
19 -> 20 ;
21 [label="entropy = 0.0\nsamples = 1\nvalue = [0, 1]\nclass = 1"] ;
20 -> 21 ;
22 [label="NU_NOTA_CN <= 391.55\nentropy = 0.571\nsamples = 37\nvalue = [32, 5]\nclass = 0"] ;
20 -> 22 ;
23 [label="entropy = 0.0\nsamples = 14\nvalue = [14, 0]\nclass = 0"] ;
22 -> 23 ;
24 [label="NU_NOTA_CN <= 393.75\nentropy = 0.755\nsamples = 23\nvalue = [18, 5]\nclass = 0"] ;
22 -> 24 ;
25 [label="entropy = 0.0\nsamples = 2\nvalue = [0, 2]\nclass = 1"] ;
24 -> 25 ;
26 [label="NU_NOTA_LC <= 481.05\nentropy = 0.592\nsamples = 21\nvalue = [18, 3]\nclass = 0"] ;
24 -> 26 ;
27 [label="NU_NOTA_CH <= 367.3\nentropy = 0.31\nsamples = 18\nvalue = [17, 1]\nclass = 0"] ;
26 -> 27 ;
28 [label="NU_NOTA_CH <= 356.95\nentropy = 0.918\nsamples = 3\nvalue = [2, 1]\nclass = 0"] ;
27 -> 28 ;
29 [label="entropy = 0.0\nsamples = 2\nvalue = [2, 0]\nclass = 0"] ;
28 -> 29 ;
30 [label="entropy = 0.0\nsamples = 1\nvalue = [0, 1]\nclass = 1"] ;
28 -> 30 ;
31 [label="entropy = 0.0\nsamples = 15\nvalue = [15, 0]\nclass = 0"] ;
27 -> 31 ;
32 [label="NU_NOTA_CN <= 401.8\nentropy = 0.918\nsamples = 3\nvalue = [1, 2]\nclass = 1"] ;
26 -> 32 ;
33 [label="entropy = 0.0\nsamples = 1\nvalue = [1, 0]\nclass = 0"] ;
32 -> 33 ;
34 [label="entropy = 0.0\nsamples = 2\nvalue = [0, 2]\nclass = 1"] ;
32 -> 34 ;
35 [label="entropy = 0.0\nsamples = 4\nvalue = [0, 4]\nclass = 1"] ;
19 -> 35 ;
36 [label="NU_NOTA_COMP1 <= 110.0\nentropy = 0.42\nsamples = 47\nvalue = [43, 4]\nclass = 0"] ;
18 -> 36 ;
37 [label="NU_NOTA_CH <= 463.65\nentropy = 0.605\nsamples = 27\nvalue = [23, 4]\nclass = 0"] ;
36 -> 37 ;
38 [label="entropy = 0.0\nsamples = 11\nvalue = [11, 0]\nclass = 0"] ;
37 -> 38 ;
39 [label="NU_NOTA_CN <= 478.65\nentropy = 0.811\nsamples = 16\nvalue = [12, 4]\nclass = 0"] ;
37 -> 39 ;
40 [label="NU_NOTA_LC <= 434.95\nentropy = 0.592\nsamples = 14\nvalue = [12, 2]\nclass = 0"] ;
39 -> 40 ;
41 [label="NU_NOTA_LC <= 427.3\nentropy = 0.811\nsamples = 8\nvalue = [6, 2]\nclass = 0"] ;
40 -> 41 ;
42 [label="NU_NOTA_CH <= 531.35\nentropy = 0.592\nsamples = 7\nvalue = [6, 1]\nclass = 0"] ;
41 -> 42 ;
43 [label="entropy = 0.0\nsamples = 5\nvalue = [5, 0]\nclass = 0"] ;
42 -> 43 ;
44 [label="NU_NOTA_CN <= 469.95\nentropy = 1.0\nsamples = 2\nvalue = [1, 1]\nclass = 0"] ;
42 -> 44 ;
45 [label="entropy = 0.0\nsamples = 1\nvalue = [0, 1]\nclass = 1"] ;
44 -> 45 ;
46 [label="entropy = 0.0\nsamples = 1\nvalue = [1, 0]\nclass = 0"] ;
44 -> 46 ;
47 [label="entropy = 0.0\nsamples = 1\nvalue = [0, 1]\nclass = 1"] ;
41 -> 47 ;
48 [label="entropy = 0.0\nsamples = 6\nvalue = [6, 0]\nclass = 0"] ;
40 -> 48 ;
49 [label="entropy = 0.0\nsamples = 2\nvalue = [0, 2]\nclass = 1"] ;
39 -> 49 ;
50 [label="entropy = 0.0\nsamples = 20\nvalue = [20, 0]\nclass = 0"] ;
36 -> 50 ;
51 [label="entropy = 0.0\nsamples = 14\nvalue = [14, 0]\nclass = 0"] ;
17 -> 51 ;
52 [label="NU_NOTA_CH <= 536.381\nentropy = 0.951\nsamples = 27\nvalue = [17, 10]\nclass = 0"] ;
16 -> 52 ;
53 [label="NU_NOTA_CH <= 476.1\nentropy = 0.918\nsamples = 9\nvalue = [3, 6]\nclass = 1"] ;
52 -> 53 ;
54 [label="entropy = 0.0\nsamples = 2\nvalue = [2, 0]\nclass = 0"] ;
53 -> 54 ;
55 [label="NU_NOTA_COMP1 <= 100.0\nentropy = 0.592\nsamples = 7\nvalue = [1, 6]\nclass = 1"] ;
53 -> 55 ;
56 [label="entropy = 0.0\nsamples = 1\nvalue = [1, 0]\nclass = 0"] ;
55 -> 56 ;
57 [label="entropy = 0.0\nsamples = 6\nvalue = [0, 6]\nclass = 1"] ;
55 -> 57 ;
58 [label="NU_NOTA_CH <= 617.051\nentropy = 0.764\nsamples = 18\nvalue = [14, 4]\nclass = 0"] ;
52 -> 58 ;
59 [label="NU_NOTA_CH <= 584.05\nentropy = 0.371\nsamples = 14\nvalue = [13, 1]\nclass = 0"] ;
58 -> 59 ;
60 [label="entropy = 0.0\nsamples = 9\nvalue = [9, 0]\nclass = 0"] ;
59 -> 60 ;
61 [label="NU_NOTA_CH <= 589.45\nentropy = 0.722\nsamples = 5\nvalue = [4, 1]\nclass = 0"] ;
59 -> 61 ;
62 [label="entropy = 0.0\nsamples = 1\nvalue = [0, 1]\nclass = 1"] ;
61 -> 62 ;
63 [label="entropy = 0.0\nsamples = 4\nvalue = [4, 0]\nclass = 0"] ;
61 -> 63 ;
64 [label="NU_NOTA_CH <= 659.41\nentropy = 0.811\nsamples = 4\nvalue = [1, 3]\nclass = 1"] ;
58 -> 64 ;
65 [label="entropy = 0.0\nsamples = 3\nvalue = [0, 3]\nclass = 1"] ;
64 -> 65 ;
66 [label="entropy = 0.0\nsamples = 1\nvalue = [1, 0]\nclass = 0"] ;
64 -> 66 ;
67 [label="entropy = 0.0\nsamples = 21\nvalue = [21, 0]\nclass = 0"] ;
15 -> 67 ;
68 [label="entropy = 0.0\nsamples = 630\nvalue = [630, 0]\nclass = 0"] ;
6 -> 68 ;
}